//Numpy array shape [64]
//Min -0.743761599064
//Max 0.355204969645
//Number of zeros 0

#ifndef B4_H_
#define B4_H_

#ifndef __SYNTHESIS__
model_default_t b4[64];
#else
model_default_t b4[64] = {0.0140573932, -0.0036073655, 0.1730179489, -0.0128226085, 0.3065271676, 0.0432646684, -0.0767631084, 0.2615528703, 0.1807165891, 0.3552049696, 0.3109064400, 0.0381458588, 0.3118462563, -0.6308773160, -0.2898061574, 0.2966688573, -0.0172238480, -0.0246708747, 0.0485679209, 0.3052730262, -0.2510229945, 0.2645186484, 0.3366016150, 0.2788168788, -0.0761550739, -0.0427721851, -0.0877395049, 0.2138216197, -0.4327592552, -0.3528118730, -0.1533163786, -0.6004774570, -0.0304644797, -0.1285728067, -0.0541827604, -0.0269684251, -0.1214076132, 0.2359618098, 0.3355917633, 0.2886442840, 0.1660784483, 0.2794782519, 0.1155107766, 0.2886966467, -0.0852797553, 0.2629598379, 0.2723140121, -0.3900347352, -0.1263789982, -0.0448618867, 0.0382879786, 0.2449885011, -0.2575740218, 0.0218913779, -0.4332996011, -0.7437615991, -0.3771324754, -0.2213266045, 0.0065229204, -0.0561122261, 0.0089439498, 0.1859559119, -0.6777919531, -0.4959317744};
#endif

#endif
