//Numpy array shape [64, 64]
//Min -6.381016254425
//Max 2.015934705734
//Number of zeros 0

#ifndef W4_H_
#define W4_H_

#ifndef __SYNTHESIS__
model_default_t w4[4096];
#else
model_default_t w4[4096] = {-0.6204606295, -0.4382293820, 0.1887727082, -0.1262292564, -0.1926357895, -0.2954672575, 0.1367306411, 0.0904236883, -0.0423814878, -0.1031068116, 0.1599134952, 0.0193941481, -0.5213326812, 0.0288127474, 0.2429652959, 0.0371775106, -0.1382406205, 0.6285468936, -0.8354823589, 0.1891747266, 0.3122182488, -0.1173025742, -0.0767124966, -0.1145374700, -0.0332171209, 0.3749228418, -0.1349534243, 0.1218855232, 0.6628344655, -0.5660994053, -0.1632022858, -0.2970128059, -0.1186511368, 0.0304984711, 0.5624930859, 0.2997330725, -0.0393130593, 0.0815868527, -0.2290455103, 0.0869333073, 0.1711204201, 0.7023777962, 0.2856483161, -0.1405905783, 0.3528227806, -0.0369910449, 0.0391637683, 0.3133949041, -0.0344557986, -0.1447335184, 0.7350435257, 0.5113474131, 0.5387927294, -1.4104738235, 0.0814710706, -0.1857338548, 0.1862095743, -0.4096092880, -0.1296399236, 0.5258815289, -0.3585603535, 0.2174463272, 0.2437827438, 0.6390060186, 0.4506790042, 0.5661968589, 0.3208858073, 0.0030452271, 0.3204669356, 0.9897410870, 0.5454432964, 0.0241407137, -0.0791662708, 0.2705341578, -0.0093454812, 0.3867614567, 0.2068491280, 0.3266695738, 0.5217086673, 0.1617811024, 0.4001447856, -0.0243024509, 0.7777900696, 0.3205993772, 1.0269464254, 0.1199998409, 0.4182971716, 0.1699855626, 0.4805013239, 0.0764638633, -0.1587589830, 0.0915537551, 0.4661001563, -0.0484767966, -0.2483839393, 0.2791068256, 0.9100679159, 1.1382604837, -0.0699192137, -0.1043677181, 0.5670683980, 0.0389476828, 0.3605494499, 0.0236228369, 0.0929611400, -0.4975370169, 0.0839424282, 0.4776468277, 0.6751130819, 0.1705234051, 0.1503485590, 0.5689551234, 0.3100541532, 0.7916273475, 0.5091975927, -0.1790608168, -0.5264306068, 0.5762264729, 0.7380080819, 0.3892349303, 0.4454943240, -1.6145176888, 0.7777137160, -0.0245911293, 0.8083384037, 0.2004362941, 0.8024975061, 0.7080929279, -1.4118202925, 0.2926546335, -0.7012077570, -0.7519146204, -1.4589705467, 0.5261515975, 0.0943202972, -0.5093925595, -0.0317062177, -1.0761157274, -1.0253216028, 0.3915567994, -1.1875774860, 0.2155431360, -1.8459440470, -1.2300107479, 0.2744307220, -0.1805283576, 0.2861390710, -0.9198762774, -0.0000005770, -0.9389831424, -1.1124054193, -1.1860060692, -0.1335077733, -0.2549280226, -0.1923374683, -0.3324903548, -1.0609120131, 0.1045870483, 0.0288841594, 0.8093338013, 0.5140022039, -0.5556681156, -0.2620975971, -0.0210931059, -0.1652199775, -0.8043698072, -1.0363236666, -0.9303471446, -0.8325939178, 0.1069084257, -0.0562712997, -1.0653489828, -0.0189443324, -0.9673047066, -0.2804788649, 0.0800143182, 0.4005163312, -0.2768180370, -1.5779905319, -0.3545573354, -0.5399590135, 0.5994256735, -0.6886108518, 0.6981814504, -0.0578156263, 0.0131883342, 0.1389689445, -0.7716583610, 0.4306908846, -1.0848847628, 0.6975838542, -0.0015277037, -0.2645489573, 0.4619263113, -0.1751202196, 0.0680801868, -0.0415746868, 0.8925732374, -1.4639453888, -0.2534548640, 0.0574342534, 0.2513756454, -0.0033443784, -0.8690461516, 0.0387039408, -0.6953525543, 0.1649657637, 0.0853129402, 0.7127664685, -1.6457991600, 0.6093075871, -0.0277018435, -0.4538641572, 0.0175260138, -0.0745384395, -0.0457132272, -1.3593488932, 0.1564842463, -0.0121139092, -0.2825680971, 0.0754657239, 0.3911920190, 0.1111730486, 0.5802171230, -0.5515902042, -1.4235228300, -0.9312911034, 0.2942913771, -1.8555887938, 0.0621873252, -0.1479654312, -0.2113184333, 0.1088237390, -0.5559277534, -0.0662404075, 0.0906440616, -1.9923999310, -0.0403239094, -0.1522901654, -1.2772769928, -1.5653975010, -1.6320791245, 0.4027677476, 0.5956579447, 1.1723811626, 0.6138052344, -0.9550002813, 0.3458246291, -1.0104625225, 1.3980466127, -0.9092656970, 0.3094969094, 0.8875946403, -0.0863229483, -0.6557220221, -1.2387193441, -0.3774330318, 0.6279714704, -0.0507317148, -0.1565440297, -0.0218182374, 0.7823077440, -1.6252551079, 0.0004462056, -0.1235423237, -0.0592778400, 0.1215979904, -0.4620488584, -0.1751740724, -0.9672823548, -0.2874399722, -0.1152167991, 0.5404301286, -1.4922873974, 0.7327321172, -0.0328365825, -0.3094099462, 0.1335507929, 0.1763090938, -0.0963277519, -1.6186479330, 0.0815001428, 0.1798864603, -0.1385723799, -0.0468808748, 0.3058858216, 0.0836170167, 0.4547393918, -0.4298910201, -1.5715807676, -0.7349756956, -0.7192518711, -1.8656013012, -0.0361553952, 0.1896555424, 0.1298466772, 0.0449970216, -0.3032548726, 0.2139399350, 0.1127170920, -1.5632609129, -0.0673093274, -0.0310242902, -1.0593568087, -1.2447611094, -1.9480713606, -0.0371224359, -1.1506192684, -2.2050480843, 0.7420517206, -0.7277355194, 0.2110286504, -1.1738916636, 1.0583105087, -1.1133941412, 0.0758012310, 0.4459708631, 0.1285682023, -0.5963650942, -0.9553995728, -0.4922468066, 0.5346726775, -0.0468039028, -0.0222215988, -0.1421854645, 0.4917433560, -1.4283540249, 0.1830688715, 0.2023580670, 0.0381748490, 0.1292452812, -0.6259086728, -0.0405542888, -0.5433945060, -0.2787473500, 0.1422133148, 0.3673568666, -1.1024730206, 0.1900648773, -0.0799295902, -0.1669779569, -0.2416204661, -0.0958681628, 0.0703415275, -1.3672466278, -0.1704391986, 0.1223423928, 0.2584611177, 0.1761257499, 0.1673173457, -0.1191505343, 0.1905559748, -0.5813508034, -1.7123329639, -0.8002256751, -0.1417733580, -1.2589000463, 0.0161800832, 0.0052987393, -0.1358816922, -0.1610939652, -0.1299275905, 0.1636430919, -0.2173037678, -0.8422546983, 0.0366402380, -0.0470716879, -0.7931625247, -1.2263550758, -1.1669796705, -0.0890412703, -0.3804868460, -0.3399496973, 0.7759934664, -0.9076392055, -0.1892548203, -0.8224563003, 0.6172583103, -0.4999494553, 0.0278976094, 0.4821710587, 0.1383021176, -0.3500521779, -0.2008586377, -1.1617969275, -0.4522904456, -0.2088759094, -0.2317027748, 0.1091106012, -0.4704122841, -0.0713862851, 0.3439615071, -0.4267227948, 0.3013837636, -0.1609559059, -0.1321012229, 0.1554188430, -0.2060264200, 0.4061757326, 0.3669237494, -0.3855991960, 0.7088436484, -0.5316449404, 0.1777330488, -0.6250662208, 0.0367842540, 0.1021266878, 0.2918356359, -0.0937102661, -0.0233277567, 0.0631305948, 0.2057659179, 0.5505444407, -0.2500706911, -0.1289810985, -0.6405304670, -0.1826029122, -0.0356582254, 0.4237435162, 0.1326379478, 0.1763310730, 0.4637426436, 0.2072554678, 0.2656619847, -0.0321680047, 0.4775420129, -0.0241135564, 0.0659600198, 0.4216982722, 0.0653034002, 0.0454639122, 0.0244815666, 0.1446034163, -0.0379257314, -0.5835483670, 0.4217460454, 0.4326912165, -0.4254213274, -0.1667498350, -0.0372774154, 0.0038544426, -0.9571070075, -0.3173381984, 0.1158165485, -0.3489967585, 0.0115410406, -0.1797427833, 0.1146431193, -0.6165670156, -0.1966680288, 0.5055245161, 0.0039896057, 0.6035182476, -0.8568226695, 0.0634998009, 0.4573243260, 0.0296766348, 0.5941189528, 0.0106195426, 0.1237385944, 0.7115743756, -0.2295530587, 1.3015582561, 0.5785549879, -0.7094228268, 0.0998825133, 0.0180099867, 0.4165844917, -1.1616156101, 0.5796875358, 0.8040872812, 0.6380973458, 0.1524248570, 0.4605879784, 0.1715070605, 0.5832743645, 1.1362226009, -0.2633939087, -0.0545042902, -0.5525384545, -1.1679309607, -0.5821270943, 0.2690868974, 0.3434055150, -0.0246360730, 0.8607012630, 0.5244032145, 0.5985156298, 0.7126981616, 1.0403869152, 0.6852422357, 0.7637974024, 0.2573224306, 0.8596680164, 0.5914826393, -0.0752396807, 0.3387857378, 0.0997180939, 0.2617710829, 0.6026033759, 0.1884519905, -0.6824840307, -0.2931650877, -0.8208434582, -0.0441457517, 0.1221275106, -0.6616930962, 0.2982654870, -0.6328292489, 0.3750414848, -0.3829527795, -0.5943400860, -0.0288441535, 0.1203666776, 0.0901163369, -0.0665816739, 0.2840447724, 0.4580577016, 0.2699233890, -0.0569949187, 0.0492817648, 0.1885068119, 0.0843026638, 0.4493922293, 0.1584136933, 0.5519499183, -3.2455976009, 0.0834275335, 0.4089783728, 0.3527009785, 0.3925974071, 0.1771749258, 0.1545563042, 0.2122958750, 0.1913770288, 0.0157782678, 0.3130040169, 0.0819788650, -0.0569825396, -0.1006966680, -1.3986573219, -0.3575355709, -0.0497933067, -0.0221993849, 0.2962772250, 0.3087528646, -0.0066610021, -0.2247825563, 0.1559560746, 0.1009289622, 0.0991036966, -0.0016291061, 0.1611689776, -0.8586192131, -0.1234995201, 0.0491660945, -0.0000938770, 0.0517466180, 0.0265735667, 0.4130657017, 0.1868586838, 0.3775021434, -2.3972077370, -0.5699164867, -0.1937676817, 0.2976958156, 0.3136876822, -0.0948145911, 0.2919028401, 0.2657254040, 0.4118524790, 0.2193159908, 0.1402032375, 0.3972439468, 0.2779162824, 0.5778557062, -0.2051921636, 0.3253856003, -1.6408058405, -1.1584281921, -2.2982816696, 0.4028645158, 0.0917876810, -1.4726458788, -1.6952376366, -2.4571609497, -2.2991108894, 0.2549491823, -2.2383186817, 0.0845487565, -1.2223523855, -2.0834739208, 0.2176814675, 0.1243411750, 0.3804299533, -1.9888079166, 0.1361293793, -2.0540261269, -2.0082490444, -2.1941628456, 0.0048963749, -1.0669765472, 0.1673146039, -1.4796184301, -1.3117350340, 0.0965804756, -0.1159331053, 0.3580022454, 0.3713417351, 0.3047896326, 0.0087978374, 0.0479555801, -0.0096428460, -1.7715184689, -1.9859589338, -2.2014141083, -2.1295201778, -0.1054802462, -1.4417315722, -2.0895767212, 0.1570279002, -1.9895790815, -1.3692361116, 0.0903677121, 0.1743265092, -0.0872552618, -0.9476024508, -0.5481490493, -0.6728485823, 0.4712453187, -0.1509100199, 0.3743626177, 0.0343887098, 0.5981217623, 0.6497513652, -1.5671632290, 0.2598856688, -1.8780733347, 0.3938322961, 0.3166100979, 0.2684265971, 0.2658126354, 0.1294740289, -0.0932557583, 0.2528841496, 0.6826592684, 0.6453866959, -0.0751640201, 0.0539391935, 0.2311942726, 0.2658686638, 0.4160802066, 0.1400092095, 0.2296055853, 0.0569219925, 0.1657765210, 0.4736119211, 0.3969869912, 0.5497599244, -0.0072420966, 0.6115223169, 0.0970375091, 0.3249015212, 0.0917926356, 0.4329430759, -0.0498013943, -0.1348789930, 0.0319216810, -0.5951732993, -0.1404633820, -0.0577819347, 0.1113759950, 0.8116688132, 0.4721681774, 0.0474528670, -0.0729700476, 0.4706835747, 0.0096470639, -0.0061939578, 0.2548164427, 0.2016046941, -0.0406835228, -0.0026208749, -0.0290749148, 0.2758944929, 0.1444747448, 0.1286118925, 0.3610665202, 0.0556636825, 0.5069699883, 0.1684707999, 0.0279174373, 0.4436007440, 0.2253709435, 0.4098135233, 0.3150299788, 0.1275321394, -0.6380956173, 0.4684682488, -0.1520336270, 0.6647153497, -0.1763781607, 0.4238806963, 0.6522711515, 0.4445531666, 0.5295718312, 0.2435220033, -0.1074285805, 0.1985008568, 0.7747221589, -0.4962766767, -0.2268154472, -0.0817323104, -0.0364146382, 0.1406657547, -0.5027281046, 0.2965694070, 0.1945582181, 0.5369244218, -0.0983316079, 0.5965604782, 0.2015197277, 0.6383805871, -0.0308666304, -0.4399719834, 0.1145626381, 0.1748168617, 0.0970363617, -0.8964665532, -0.0600052327, -0.1778607816, -0.0907426253, 0.6702433825, 0.3068841398, -0.0340460539, 0.3208857179, -0.1106709465, -0.8379893303, 0.1697982848, -0.6167740226, 0.0290543884, 0.3251466155, -0.0967241898, -0.1177065820, -0.0941463783, 0.4948450029, -0.1545178741, 0.0023824859, 0.1982423961, -0.0886298195, -0.1359059513, -0.0021667024, -0.2012102604, -0.6696989536, 0.5407375693, -1.1297430992, -0.2697149217, 0.6234332919, -0.3884326816, -0.0243341699, -0.0025984091, 0.7022349238, -0.4105555117, -0.2043263763, 0.3171768486, -0.4041397572, 0.0075909705, 0.3553051651, -0.8930201530, 0.3190265894, 0.2223683298, 0.0699548200, 0.0944414139, 0.3524219692, 0.2900026441, 0.0672478974, 0.5298547745, 0.3725937307, -0.3220949471, 0.1783014238, 0.5262190104, 0.1294637620, 0.3083039224, 0.4613662362, 0.4013986588, 0.4413562715, 0.4307855666, 0.0494500175, 0.9140738845, 0.2304736972, 0.5876407623, 0.6408118606, 0.2512204647, -0.1744712591, 0.2185779810, 0.3752895892, 0.2103839666, 0.3770740926, 0.0620775521, 1.1160281897, 0.6711384058, 0.7928531766, 0.1914577782, -0.1981823295, 0.2903211713, -0.5744219422, 0.5358812809, 0.6117862463, 0.5181279778, -0.7088230252, 0.6017867327, 0.5063328743, -0.0412031598, 0.4418862164, 0.3498080969, 0.2180916220, 0.2324608564, 0.3185772002, 0.5059650540, -1.3278480768, -0.8983157277, 0.1861366183, 0.6491898894, 0.9251301289, 0.0141816922, 0.5337229967, 0.2019656897, -0.6560391784, 0.7484819293, 0.1782047004, 0.6303669810, 0.5641516447, -0.4605384171, 0.4643383622, 0.0794392005, 0.0374830328, 0.1660383642, 0.1736887991, 0.2457762510, 0.0305462275, 0.1292902678, 0.1021946743, 0.5090056062, 0.6086741686, 0.2745348513, 0.1209963113, 0.5612845421, 0.3573131859, 0.2679639459, 0.3271634877, 0.3997474611, 0.2624611557, 0.3969570398, 0.2019829154, 0.3610774875, 0.2614687085, 0.4835671484, 0.1047364548, -0.1438948214, 0.1442983001, 0.0017554716, -0.3102749288, -0.0529489554, -0.4439121783, 0.3050383925, 0.1899899244, 0.2601198852, -0.6001889110, 0.5384290814, -0.3284511268, 0.4906743169, 0.4964608848, 0.1896692216, -0.4717137814, 0.3910824060, 0.1067806929, 0.3318668902, 0.3980132937, 0.4348856211, -0.1300330460, 0.5344120264, 0.5510664582, 0.2097827494, -1.1965039968, -0.5774708986, -0.3878988326, 0.5030712485, -0.2589326501, 0.2022511512, -0.1221467927, 0.0941205397, -1.3414275646, 0.1090460420, 0.0912476406, 0.2883741260, 0.0871551931, 0.1967263073, -0.0586953200, -0.2572574317, -0.1634253412, -0.0759137496, -0.0425118655, 0.0927079022, 0.2263236344, -0.4115494490, -0.0746842548, -0.0149510466, 0.1777871996, -0.0410049185, -0.4129998684, -0.0147191212, 0.1373801976, 0.2137644291, -0.2522648573, -0.0684076995, 0.1375760287, 0.1798338294, -0.2190962732, 0.0527709462, 0.1083984599, -0.2160216421, -0.0708312988, -0.1325920224, 0.0656910688, -0.1101427525, -0.0361036472, 0.0883497447, -0.3346396685, 0.3201554716, -0.2934027016, -0.2260812372, 0.2111757994, -0.0146767758, 0.1855088621, 0.1118296981, 0.1162285134, 0.1560278386, -0.1698308140, 0.0258065928, 0.0216441564, -0.3375515640, 0.1835738569, -0.1630321443, -0.5043005347, 0.0052068750, -0.1609711945, -0.1110748127, -0.1016469896, -0.3341573775, -0.0627382770, 0.0005942681, -0.1424371749, -0.0205303784, -0.5531240106, 0.1663999110, -0.2647516131, -0.0747214854, -0.1703909338, 0.1562537253, -0.3392209113, -0.7140125036, 0.7620503902, -1.0793732405, -1.0296820402, -1.0503423214, 0.2772038877, 1.1164225340, -1.5133420229, -0.6302035451, -1.0700186491, 0.0538827591, 0.7783430815, -0.9049106836, 0.4818856716, -1.3586901426, -1.0247653723, 0.2800309658, 0.8349190950, 0.9773125052, -1.3928011656, 1.4293011427, -1.2254070044, -0.9062561989, -0.7192639709, 0.8666330576, -0.1434561610, -0.1898441911, -1.3001551628, -0.5088831782, -0.0638629943, 0.1583428830, 0.1576794237, 0.8473894596, 1.3890711069, 0.5297448635, -0.0648664087, 0.8313996196, -1.2012343407, -0.8902465701, -1.2537150383, -1.1121772528, -1.0994563103, -1.3444230556, -0.7227753401, 0.8269285560, -1.3145647049, -1.1485233307, 0.5689566135, 0.9436772466, 0.6298140883, -1.4088443518, -0.5804955959, -0.6872748733, 0.2784577906, 1.4112887383, -0.2272736281, 0.6731329560, 1.1114987135, 0.1249931902, -0.7294572592, 0.2025807947, -1.0034054518, 0.6088700294, 0.4860941172, -0.2680344284, -0.2234947085, -0.3694222271, 0.0456181653, -0.2924765646, -0.3964235783, 0.1113944054, -0.3026132584, 0.2767895460, -0.0690032989, 0.0680746064, 0.0444524400, -0.1248175129, 0.5601633191, -0.0431174338, -0.3618311286, -0.1612226665, 0.1355971247, 0.2147258222, -0.3029319644, 0.4126809835, -0.2774688900, -0.2303424627, -0.0063696890, 0.0582284853, -0.2960855663, -0.2620134056, -0.1385737360, -0.4983369112, -0.1527813524, 0.0271373522, -0.4212559164, 0.2012915462, -0.0518845543, 0.3660921752, -0.2298399061, 0.2324436307, 0.0886722654, -0.1693355292, -0.1221318096, -0.2340106070, 0.2425294667, -0.3880977631, -0.2074277997, 0.0355050862, -0.3686819971, -0.2013417631, 0.0563072674, -0.0398667455, 0.1905001551, 0.3811792731, 0.1869777143, 0.2320475876, -0.3321499527, 0.4828098416, 0.3580086231, -0.0617370121, 1.4957683086, 0.4070000947, 0.3072437644, -0.1994088888, -0.2215038389, 0.4917453527, 0.8230708838, -1.3452849388, 0.5914636850, -1.2231544256, -0.6523656845, -0.4410281181, 0.6636803746, 0.5871981978, -1.3267163038, -0.5135014057, -0.8307442069, -2.3818325996, 0.5590910316, -0.2735855877, 1.3106067181, -1.3087556362, -0.6088589430, 0.6894038320, 0.4826384783, 0.6228533983, -0.6967299581, 1.0090030432, -1.2531089783, -0.4003648460, -0.4717802703, 0.5286158919, 0.0496162400, -0.0016325783, -1.4154936075, -0.1489023417, 0.4859065413, -0.1660004407, 1.0623205900, 0.9054006338, -0.0891093612, 0.5415929556, 0.0093166474, 0.4750585854, 0.2179669738, -0.7972904444, -0.4260829389, -0.4156228602, -0.0378550291, -0.5387029052, -0.8008283973, 0.2216607779, -0.4744829237, -1.4455108643, 0.8853018284, 0.6879297495, 0.5056445003, -0.6399912834, 0.6214465499, 0.7332084775, 0.4497398734, 0.8418606520, 1.2793292999, 0.8870545030, 1.5441623926, 0.8880518675, 0.1008922979, 0.8103691339, -1.1466276646, 1.1686847210, 1.6173828840, -0.5137243271, -0.6733318567, -0.1220191345, -0.3836878538, -0.2263685167, -0.4742693305, 0.3547336757, 0.0883911327, 0.0590336323, 0.1025285348, 0.2414980382, 0.3909406662, 0.0491194837, -0.1917671412, 0.4204026461, 0.1841036826, -0.4518798590, 0.3582446575, -0.4989882410, -0.0008806578, -1.0393697023, -0.0493764989, -0.2481095642, 0.0087373750, 0.0971793607, 0.1447116286, -0.0828131586, 0.3119734824, 0.0651648566, 0.1232449487, 0.0307040941, -0.7354991436, -1.1633368731, 0.2003742605, 0.3249015808, -0.0649162456, 0.3934709132, 0.3918440044, 0.1739207953, 0.0907792449, -0.2639338374, 0.2284860760, 0.0761893839, -0.1574480236, 0.2221806943, -0.0962507203, 0.1825613976, 0.4378040135, 0.1078414991, 0.0110339541, 0.5837722421, -0.5214648247, -0.5834873319, -0.5572714210, -0.3341239095, -0.3266898394, 0.1357235163, -0.8595854640, -0.1068585590, 0.3461672962, -0.5243840218, -0.1465365887, -0.5046474338, 0.1561337560, -0.9029865265, -0.4826141000, -0.3691217303, 0.0196909606, -1.3502707481, -0.0238670576, 0.0793354511, -0.8366670609, 0.2771368623, -1.1151511669, 0.1975089759, 0.2787044942, -1.5245871544, 0.0153656946, -1.3249737024, -1.4107640982, -0.0601378605, 0.0452122614, -0.1817589849, -0.8717035055, 0.2793935537, -0.2827505469, -1.6778286695, -1.6170983315, 0.0467714183, -0.7641590238, 0.0272838809, -0.9607896209, -1.0326931477, -0.2113128006, -0.0476689488, -0.2604855895, -0.1076117381, -0.2510032654, -0.0073769558, -0.3774406314, 0.0942453593, 0.0061827400, -1.4446713924, -1.3115179539, -0.9465997219, 0.4762442112, -0.7969435453, -1.4091778994, -0.0936267897, -1.0880341530, -1.2001473904, -0.0024879908, -0.1838458478, 0.0226693340, 0.1823093295, 0.1571357697, 0.7674745321, 0.0079799360, -0.0068586199, -0.1330026835, -0.3420649767, 0.1900910437, 0.0687321424, 0.2060505450, -0.2289352268, -0.2524839342, 0.0423902906, -0.3216496706, -0.0379696377, 0.6726933122, 0.1052751765, -0.1164393723, 0.2585850656, 0.6130179167, 0.5310430527, 0.1662827134, -0.2403319031, 0.1008592397, 0.2038083375, 0.7893959880, 0.2803708613, 0.2155240178, 0.3675291538, 0.2618512511, 0.6384505630, 0.2625237405, 0.8849276304, 0.2789471149, 0.9041026235, 0.2608921528, 0.2709368467, 0.3419069946, 0.3304687440, -0.0600863956, -0.1000771970, 0.0109481597, 0.4831049442, 0.1526089162, -0.2598170638, -0.1436944157, 0.5070700645, 0.7795069814, 0.1020610034, -0.2266374826, 0.5963055491, -0.0646950379, 0.1485372931, 0.2568678558, 0.2948060930, -0.9350544214, -0.0616460927, 0.2743559182, 0.6228445768, 0.2371185571, 0.1768202633, 0.3371482491, 0.1280480772, 0.7414393425, 0.3125535846, -1.0202728510, -1.5329774618, 0.3511009812, 0.5010390282, 0.4888047576, 0.0631000698, -1.5115277767, 0.5063529611, 0.1270695776, 0.6706775427, 0.1096086353, 0.6210188866, 0.4074507058, 0.6392845511, 0.0737797320, -0.0034494984, -0.2236024588, -0.2653014958, -0.1148925498, 0.0911283046, -0.1733434647, -0.1839018017, -0.4524168372, -0.2687019408, -0.1198981106, -0.1707589924, 0.2587390840, -0.6161040068, -0.1316427886, 0.0438823923, -0.4092182219, 0.0809585601, -0.2801266909, 0.8780706525, -0.3349004686, -0.0103091663, -0.1850086451, -0.1538079828, 0.1032581180, 0.1247938275, -0.0377958678, 0.5997725725, -0.1969002187, -0.2238350362, 0.8736473918, 0.3316664696, 0.1281233132, -0.4218003452, -0.0381266326, 0.1137709022, 0.8988913298, -0.1298948675, -0.3397079408, 0.0082995752, 0.9183104634, -0.1555947661, 0.3362540007, -0.2371262163, -0.1262691617, -0.0069963788, 0.4207785726, -0.0497889407, -0.0673867688, -1.3355165720, 0.9651340842, 0.5721785426, -0.1439911127, 0.5483365655, 0.9162262082, 0.1574504226, -0.6846840382, 0.4424631596, 0.6969141364, 0.3134341240, 0.0039528874, 0.6309137344, 0.6561388969, -0.4804314375, 0.2193683237, -0.0417385139, -0.1418108940, -0.0621886812, 0.4904603064, -1.7741001844, -0.1770730913, -0.0907292441, 0.0162847806, -0.1002794281, -0.7629601955, -0.3206714392, -0.2066077590, -0.1777573228, 0.0559184849, 0.6274937391, -1.4615917206, 0.3798711896, 0.1708598584, -0.4874556959, -0.1472409368, -0.1804009229, -0.0673318058, -1.5166627169, 0.6248785257, 0.0372089632, -0.0513344817, 0.0929620638, 0.0443462320, -0.1772879213, 0.6213445067, -0.7811123729, -2.8631098270, -0.5665492415, -0.5142913461, -1.3043364286, -0.1771852672, 0.0976960734, -0.1104850173, -0.1587246805, -0.5195622444, -0.0918963328, -0.2510044873, -0.8012124896, 0.0786752105, -0.2559813857, -0.1907170266, -0.3159296215, -1.8698109388, -0.0271887779, -0.3535579741, -0.5081754923, 0.6132273674, -1.1949955225, 0.4442089498, -0.6963515282, 0.7120058537, -0.9532060027, 0.2972319126, 0.5052468181, 0.1957650334, -1.2153723240, -0.4620030522, -0.5841140747, 0.0575429946, -0.1473165900, -0.4456755519, 0.1336574256, 0.0540492423, 0.1767398417, 0.1311010569, -0.4601365328, -0.0691978335, 0.0202599056, 0.1138678491, 0.2901255488, -0.0469655804, -0.7841755748, -0.1827841401, 0.0972096547, 0.3571367860, 0.0290004723, -0.2329478860, -0.3151940405, -0.2857561111, -0.1374649405, 0.2724379897, 0.3967174590, -0.0829932168, -0.2021999508, 0.3682186306, -0.5066053867, -0.3508425951, -0.1640901715, -0.4017517567, 0.1174726039, 0.0300908498, 0.3710485399, 0.1554233134, 0.4840987027, -0.8204725385, -0.0237864666, -0.1613790840, 0.1712547541, -1.8327493668, -0.1241658255, 0.1612932086, 0.4293006063, 0.1802520752, 0.2339379638, 0.3508968055, 0.2876287997, 0.4967799783, -0.5878011584, -0.5451133251, -0.4233213663, -0.2069778442, 0.0963576138, -0.6629754901, 0.2584933639, -0.5289371014, -0.1038869098, -0.8660069704, -0.0839250609, -0.0375405513, -0.2596462667, 0.0485423170, -0.5232591033, -0.0163779575, 0.0821791887, -0.4308690429, -0.2898007631, 0.1832674146, 0.2355349511, -0.4933573008, -0.3535956442, -0.2758165002, -0.1852592081, 0.2875295579, -0.1245522648, -0.2367818654, -0.1049060151, -0.2796058953, -0.0751525238, 0.0114119221, 0.2983664870, -0.2664967477, -0.2263066322, 0.1323906630, -0.4211770594, -0.3153622746, 0.2594242096, 0.1484808773, -0.2151706666, -0.2795581520, -0.0742479935, -0.3550390601, -0.0110116741, -0.3374008834, -0.0829536095, 0.1272448152, -0.0584451631, -0.0120444391, 0.3240063190, 0.0450055674, -0.0417930111, -0.3165606558, -0.2020154148, -0.2151316255, -0.4496754408, -0.0891789794, -0.0436634123, -0.4665447474, -0.5698400736, -0.1807288677, 0.1109036878, 0.2929522395, -0.1373957992, 0.0265414380, 0.3274431229, 0.1713428944, -0.2735016942, -0.4976759553, -0.1577738374, -0.2566423714, -0.2285716534, -0.0315270945, -0.0454662405, -0.2533645630, -0.3321937323, -0.3493711948, -0.8614388704, 0.3266392350, -0.1021605283, -0.1301976293, -0.0993928760, 0.4216467142, -0.8428412676, -0.5462495685, -0.2031839788, -0.3350805342, 0.0676805004, -0.4249851406, -0.3637688756, 0.1313622296, -0.3689751625, 0.0354612917, 0.2569660544, -0.5702358484, 0.1533723921, -0.2261576504, -1.0040650368, -0.1639544368, -0.1196501851, 0.0136448983, -0.7650237083, -0.0720412508, 0.1085202768, -0.0296662897, 0.1234492287, 0.0862319171, -0.1117686480, 0.4563063979, -1.0536651611, -3.2823607922, -0.2776310742, 0.1818457544, -0.5645211935, -0.2879781127, -0.0005125869, -0.0514201075, -0.0469197556, -0.9060801268, -0.2628140748, -0.2398572862, -0.6368772984, 0.0412121117, -0.3719491959, -0.3016961515, -0.4775935113, -0.8670845032, -0.2232571542, 0.7437367439, 0.1854154617, 0.4166803658, -1.3167682886, 0.5266272426, -0.1978944242, 0.6453629136, -0.5205204487, 0.0684361309, 0.0377531052, 0.0409883820, -0.1733099818, 0.1674361676, 0.2735171914, 0.4091259539, -0.0342275687, -0.0909386277, 0.2028378099, 0.2985343337, 0.4551374018, -0.0804472044, -0.0404875837, -0.0481603481, 0.1124056727, 0.2973580658, 0.0065098982, 0.4554853141, 0.3421467841, -0.0529551804, -0.0334631465, 0.0790653303, 0.4748305380, -0.0738497227, 0.5507910848, -0.0575408675, -0.1000369340, -0.1922807097, -0.0782165229, -0.0926277712, -0.0615085587, -0.3606059253, -0.3961159885, -0.1252069920, -0.0152328257, 0.1816256642, 0.1559585482, 0.3633275032, 0.0193547606, -0.0794501826, 0.2729004025, -0.3348050117, -0.0778832138, -0.2093127817, 0.0078899842, 0.2174783051, -0.0433987938, -0.1735723466, 0.1673060656, -0.0536504947, -0.0572291464, 0.0047045038, 0.3319915831, 0.3348664343, 0.3599706590, 0.1502572894, 0.3255405426, -0.1616866291, 0.3874068856, 0.4529471993, 0.2821567059, -1.1473752260, 0.1468595117, -0.3676503003, 0.4744408131, -0.1514553875, 0.3533591032, 0.3109221756, -0.7688564062, -0.2830549777, -0.4888217747, 0.0565785989, -0.9659335613, 0.1344604790, 0.0764560997, 0.5533777475, 0.4783476293, -1.2094149590, -0.3225301504, 0.0523195490, -0.8682903051, 0.2707344294, -1.3971066475, -0.7502185702, -0.2487275153, -0.0556066930, -0.1235465184, -0.8449699283, 0.3047313094, -1.0316795111, -1.0090901852, -0.2466369718, 0.1164226532, -0.0198042057, -0.2343218476, 0.5699298978, -0.9006011486, 0.1810534596, -0.0900878981, -0.0660773665, 0.0943719074, 0.6811381578, 0.0127965808, 0.1232154742, -0.0120831858, -0.6734521389, -1.0122576952, 0.1962293983, 0.2628065348, 0.3446542919, 0.3982355297, -1.0227774382, 0.0690361634, 0.1472406834, 0.5138929486, 0.0044625932, 0.0632544160, 0.1023434252, -2.3002955914, 0.2528564930, 0.5900486112, -0.1307239681, -0.5484234691, 0.3269027174, 0.1902459413, -0.2773155868, 0.4498799741, -0.4547174871, -0.0471252166, -0.4397141337, 0.3235032856, 0.2468945235, -0.9001803994, -0.1388655007, -0.7415776253, -0.2641019523, -1.6324211359, -0.0732814819, 0.1818035990, -1.3642944098, 0.1175430417, -1.4812660217, -0.1790475696, 0.2740376890, -1.5733182430, -0.4606805444, -0.8199709058, -1.5547422171, -0.0952907801, -0.2788035274, -0.2412015051, -1.2275218964, -0.2845397592, -0.7171294093, -1.8281517029, -1.8047834635, 0.0510646887, -0.2337285876, -0.2611726522, -1.3998427391, -0.6983250380, -0.4215618074, -0.2436729074, -0.4643403292, 0.1282262504, 0.0245815925, -0.0501994304, -0.4437686503, 0.0642843321, -0.1765659600, -1.5020586252, -1.6889321804, -1.0610584021, 0.1239661798, -1.2883733511, -1.3489608765, -0.3175845742, -1.2457653284, -1.4261658192, -0.2404454648, 0.0829062685, -0.0138013372, 0.2695752084, 0.2933081090, 0.5530509949, 0.2063379586, -0.0632953271, -0.5311217308, -0.2473558038, 0.2998673022, 0.1304972768, -0.0652335137, 0.0515575781, -0.6724252701, -0.0664446875, -0.2504096031, 0.3131890595, 0.2928143144, 0.2242239863, -0.0204694681, -0.0404922850, 0.8858703375, 0.3172871768, 0.3091584444, -0.0629315451, 0.0817468092, 0.3382639289, 0.5663629174, 0.0338864103, 0.0992419124, 0.0000172780, 0.3438311219, 0.5013305545, 0.2430883497, 0.5806618333, 0.2303461730, 0.8758313656, 0.0577723384, 0.1573271304, 0.4331533611, 0.5098205209, 0.1124245375, -0.1740634143, 0.2595625222, 0.0096256472, -0.0584173948, -0.1962506026, 0.4487748742, 0.7482413650, 0.3659685552, -0.1497639269, -0.0688875318, 0.3525424004, -0.0660048500, 0.1633440107, 0.3545793891, 0.2656483948, -0.2092319727, 0.1496178955, 0.1420745403, 0.2061710954, 0.4135297239, 0.3237608373, 0.3566482663, 0.2559484839, 0.2977490723, 0.1907717437, -0.5125487447, -0.1718520373, 0.4296615124, 0.2602721751, 0.6068693399, 0.4195293784, -0.7864540219, 0.9034376144, -0.1000206172, 0.6821905971, 0.3054317236, 0.2816533744, 0.6261820793, -0.5262116790, -0.1321795434, 0.0195875000, -0.3541784286, -0.2226140648, 0.0079336548, -0.7043796182, -0.3171441853, -0.1656640172, -0.4218938053, -0.0202555750, -0.6914173961, -0.1800003499, -0.6042068601, 0.5193567872, -0.0116565619, -0.0179570355, -0.6858445406, 0.0428951941, -0.1153141707, -0.6968409419, -0.1804465950, -0.0744213089, -0.1093831807, -0.3423147798, -0.2473025769, 0.0042497511, -0.0862926841, 0.8213693500, 0.3228065372, -0.0792549103, 0.3500077128, -1.1182919741, -0.3929266930, -0.3389588296, -0.0423463844, -0.3648732305, -0.0824974328, -0.1023315862, -0.2013644278, 0.1429031938, 0.6851446033, 0.1006460935, -0.0968285874, -0.9779858589, -0.1332427561, 0.0215145126, -1.0203410387, -0.9761940837, -0.4738433957, 0.6044518352, 0.7840024829, 1.0133883953, 0.1369590163, -0.2519436181, -0.4382570088, -0.3762122989, 1.2857943773, -1.4489951134, 0.2566492558, -0.2473341227, -0.1502467692, -0.8002554774, -0.6736288667, -0.5045052171, 0.1945809275, -1.1402910948, -1.4431424141, -1.5244981050, 0.2398493141, -0.0323749669, -1.6368088722, -1.8078341484, -1.5165736675, -2.0247626305, 0.1364910007, -1.6204333305, 0.1405848116, -0.1184535921, -1.9772651196, 0.0538618006, -0.3494421840, 0.1796154380, -1.7024657726, -0.1468363702, -1.3940436840, -2.0452303886, -1.7193760872, 0.1427326351, -0.7152550817, -0.1041432470, -1.5924041271, -0.3896918595, -0.0987787694, -0.0437799133, -0.0997810811, 0.2444393337, 0.2890085280, -0.3590960801, -0.5543795824, 0.1396398395, -0.2475797683, -1.7268908024, -1.6848982573, -1.6791960001, 0.0569666848, -1.2767342329, -1.7402017117, -0.1950250268, -1.5983577967, -1.2866244316, -0.2235939056, -0.0650612488, -0.0682268664, -0.9655010104, 0.5105816722, 0.4267180860, 0.1617727876, -0.0981939137, -0.1056348681, -0.1243070215, 0.0525116175, -0.0625690073, -0.3152873814, 0.2097442299, -1.5539367199, -0.1466745585, -0.1282965690, -0.2667143643, -0.2128216326, -0.0594488122, -0.0911084563, 0.1584783196, 0.0426619127, -0.0083188443, 0.1741837859, 0.0876830295, -0.0776947141, 0.2366833091, 0.1621475816, -0.0967983380, 0.3092380166, -2.1158382893, -0.2504608035, -0.0069103162, -0.2428407073, -0.0193255749, -0.2458703518, -0.1259528399, 0.2028855979, -0.5441543460, -0.5124117136, 0.2324111015, 0.2070016861, 0.0951549932, -0.1893380731, -0.9277652502, -0.5357584357, 0.0113650654, 0.3628252745, -0.0404500440, 0.2559533715, 0.5297546983, -0.1451645643, -0.0433027372, 0.1908672452, -0.5205428004, -0.2863049805, -0.2205961198, -0.5953472853, 0.0098501993, -0.2936589718, 0.2586643994, -0.1111927852, -0.3438395262, 0.4583212733, -0.0055278265, 0.0619626418, -0.7854239941, -0.0197439007, 0.2795211077, 0.1973082870, 0.2135780752, 0.5124229789, 0.3344157040, -0.5634967685, 0.0879710764, 0.2473093718, -0.2584312856, 0.1305691153, 0.3989804983, -0.3448725641, -0.4331142604, 0.3568285704, 0.1402495354, -0.1454430670, 0.0689410642, 0.1977458298, -0.5233746767, 0.1414636225, 0.1777810305, -0.0758913606, -0.2668410242, -0.5090173483, -0.0016468153, -0.1877585202, -1.3830237389, 0.1764166206, 0.1192815378, -0.1723051965, 0.2703176439, -0.0698510706, -0.2449120134, -0.1340329349, -0.1602765918, 0.0292873234, -0.7451686859, -0.2643983662, -0.2158371657, 0.0479813665, -0.3371389210, -0.0320455693, 0.0283458196, 0.4843294621, -0.3669399619, -0.4610279500, -0.2569150627, -0.4220625758, -0.1936222911, -0.1647360027, -0.0647594556, -0.0773676485, 0.0116627952, 0.0680017099, -0.1850599349, 0.1759914458, -0.0544056296, 0.0141314352, 0.0773201436, -0.0532823205, -0.3825072348, -0.2452233136, -1.4139081240, 0.3345110714, 0.5446233749, 0.2896418571, -0.5916972756, 0.0206072014, 0.0500976220, 0.3810645640, -0.3911089897, -0.1732378304, 0.4646198750, 0.1110864207, -0.6192970872, 0.1726793200, -0.3527963161, 0.2863227427, -0.1040562987, -0.0164149031, -0.0557961017, -0.1451693773, -0.7390145659, 0.1833495498, 0.2440879196, -0.2825654149, -0.0094210943, -0.3853926361, -0.2274590880, -0.5235673785, 0.8026576042, 0.1408885717, -0.0200212970, -0.3902763724, 0.3010501862, 0.0394129530, -1.0558758974, 0.0017221314, -0.0343774036, 0.0417175181, -0.5799775124, -0.0752432123, -0.2122451514, 0.1500349939, 0.1434795111, -0.4842330813, -0.1994197518, 0.4289433062, -1.0966129303, -0.1711311638, -0.3647964001, 0.0025628577, -0.3233094811, -0.1201633140, 0.1432241499, 0.1363945752, 0.0485490821, 0.8049800992, 0.1231372356, -0.1701552123, -0.2399974912, 0.0977681354, 0.2321526557, -0.7480036020, -0.8738799095, -0.3807454705, 0.5679091811, -0.0901315138, 0.7460960150, 0.0447254255, -0.4533325136, -0.0509393252, -0.5911285877, 0.5032181740, -0.9742705822, -0.3744843900, 0.1622090042, -0.3899179399, -0.6094450355, -0.5017365217, 0.6762088537, 0.0668928325, -5.9191989899, -2.7500028610, -5.8491282463, 0.4600124657, 0.1867063940, -4.9550170898, -4.3893108368, -6.2954459190, -6.0666365623, 0.3738988340, -5.8427557945, 0.1387178749, -1.5938533545, -6.3003110886, 0.3982889056, 0.4221203029, 0.3168345690, -6.0553603172, 0.3279338777, -5.4466986656, -6.3442835808, -6.3810162544, -0.1240421012, -2.2174706459, -0.2598825991, -4.7435307503, -1.2176458836, 0.2046293318, 0.0056264815, 0.2099364996, 0.1662410945, -0.0610060766, 0.3183880150, -0.2980180681, 0.0051471381, -4.9080018997, -6.3049540520, -5.9406189919, -5.5506482124, -0.6983423829, -4.4776582718, -6.2412118912, 0.2089608759, -6.2085251808, -5.1751632690, 0.1821916997, -0.0458940640, 0.0516181700, -3.2163519859, 0.3953160942, 0.2310529202, 0.1464896053, 0.1309745014, 0.2556062639, 0.2226078212, 0.1507621855, 0.2617631257, -4.2172760963, 0.3952523172, -5.7738032341, 0.1617118865, 0.3656935096, 0.4616133571, -0.1204921082, -0.3811325729, 0.0127871903, -0.8007969260, -0.3124153316, 0.4179875851, 0.5481207967, 0.4734516740, -0.7615095377, -0.4926338494, 0.1044811085, -0.7580500245, 0.4876729548, -1.3389127254, -0.7637422085, -0.0993269756, 0.5808089972, -0.4264116585, -0.2783309221, 1.2249411345, -0.6051793098, -0.6202152967, -0.4755599201, 0.4324737787, -0.2726649046, 0.0349121206, 0.6048647165, 0.0915640891, -0.2892846763, 0.0669874996, 0.1268146634, 0.6549821496, 0.6265634894, 0.1621138453, 0.2154125273, 0.6281293631, -0.5141279101, -0.5738458633, -0.4499256015, -0.0322401673, 0.1977863312, 0.4220272303, -0.6714047194, 0.5835037231, -0.6569214463, 0.5024921298, 0.7155403495, 0.1483017057, 0.5153082013, 0.4666168392, 0.4193954468, 0.1081063747, -0.2620463073, 0.9015328884, 0.2652894258, 0.3568911552, 0.0399929434, 0.6863696575, -0.5923028588, -0.1684859097, -0.4102935493, 0.4722547531, 0.7512720823, -0.3546439707, -0.0208211318, 0.1018834785, 0.0056098397, -0.1096776575, -0.6282917261, 0.0035095001, -0.0370089933, 0.1270545125, -0.0049742335, -0.1227546334, 0.1811125427, 0.1272132993, -0.2227795422, 0.3117120266, 0.0160734709, -0.4034851789, 0.1957793832, -0.1989081502, 0.0641155243, -0.7131470442, -0.0856180415, 0.2300915867, -0.2822468281, 0.0131909773, -0.0405848697, 0.0113345878, -0.0142139532, -0.3990561962, 0.1333491653, -0.2464120090, -0.7169875503, -1.4152189493, -0.5753191710, 0.5645599365, -0.3679525554, 0.2757990062, 0.1564216316, -0.0232206509, -0.1480918080, -0.0783243179, 0.1966286153, -0.1090785712, 0.0779741630, 0.2182088196, -0.1353505403, -0.2650217414, -0.2879904509, 0.0478636399, 0.0433721915, -0.2401435822, -0.0159755573, 0.0263651330, -0.5090266466, -0.1739202887, -0.0237025879, 0.0327219591, -0.7034699917, -1.0251581669, -0.0830007568, -0.2613837719, -0.1473366022, -0.5437061191, -0.6346541643, -0.2048247308, 0.5736567378, -0.0228088666, -0.0750323907, 0.2606561780, 0.6263297796, -0.1946658492, -0.1706805229, 0.2689085305, 0.1918833256, -0.0118101444, -0.2305847406, 0.3284498453, -0.1492249370, 0.5823450089, -0.1176398396, 0.3195388913, 0.1295548379, 0.4068260193, -0.1712648422, 0.2783834636, 0.1260410100, -0.1695449948, -0.0171115007, 0.1655343473, 0.2413356304, -0.2852333486, -0.0864045098, 0.4280050397, -0.1689433604, 0.0479672849, 0.3179331720, -0.0089585977, 0.2661703825, -0.1260186136, -0.1830493212, 0.1408195943, -0.1923631430, -0.2311588824, -0.0277979728, -0.0214729663, -0.8154678345, -0.2190411240, -0.1273162961, 0.1495604366, 0.0021917045, -0.1276889741, -0.2759645879, -0.0688179880, 0.0965557620, 0.6594154835, -0.7432217598, -0.7487109900, -0.2907245159, -0.1013859957, -0.2461116761, -0.1488094926, -0.9059434533, -0.1524247378, -0.3057693541, 0.4239356816, 0.3466002047, 0.2155976146, -0.0934203118, 0.3104556501, 0.3813369274, 0.1303174943, -0.0333230942, 0.4420922995, 0.4896720350, 0.5114859343, 0.0003766038, 0.2906202078, 0.2953265309, 0.2456780821, 0.6272783875, 0.4557633102, 0.7685772777, 0.4913066328, 0.1494722515, 0.4486790597, 0.5946852565, 0.8549126387, 0.1968556345, 1.1377657652, 0.4479376674, 0.2167262733, 0.0952784047, 0.5132759809, 0.0603975877, 0.1618710309, 0.1871188879, 0.2339332700, 0.1390566379, 0.0172275007, 0.2745120525, 0.8225812316, 0.7483934760, 0.3206546009, 0.1563482136, 0.6382573247, 0.2182391882, 0.2053553909, 0.0440345407, -0.0107931038, -0.9026267529, 0.0451752655, 0.2567315400, 0.9383854270, 0.1770178527, 0.1419630200, 0.7801548243, 0.5981494784, 0.4471246600, 0.0364321321, -2.6487178802, -2.2372529507, -0.0267613027, 0.8328842521, 0.6304377317, 0.7886328697, -0.5704758763, 0.7745263577, 0.3767462075, 0.8101679087, 0.3382092118, 0.9304752946, 0.6952096820, -0.2698037624, 0.4006716013, -0.0096073374, -0.2646408677, -0.0087526198, 0.2562766373, 0.1965201050, -0.3429678977, -0.2119993120, -0.0569159202, -0.1279626191, 0.2986591458, 0.1056276411, -0.1150165647, 0.4905940890, 0.0440383404, 0.0134867886, 0.6674521565, 0.6033205390, -0.1100972518, -0.1187845394, -0.1077572703, -0.1764910668, 0.0547869317, 0.1851250231, -0.2433741987, -0.2260805368, -0.2309117466, -0.0124994088, -0.0926248208, 0.0491200127, 0.2488441914, -0.6332859993, -0.6723721623, 0.8262346387, -0.0185421426, 0.3156368434, 0.5359889865, -0.0792724863, -0.0537422039, 0.1920537055, 0.9895328879, -0.1346326023, -0.0515121520, 0.4698237777, -0.0947399288, -0.1918522418, 0.0886717811, 0.2074849755, 0.2243068665, -0.3502272069, 0.2061016262, 0.3885583282, -0.4260884225, 0.1956257820, -0.1837960780, 0.3832794726, 0.2035048455, -0.4879163802, 0.5126743913, -0.1477411091, -0.0007423852, -0.2220828980, 0.3615050316, -0.3885222673, -0.4472792745, 0.1111079305, 0.4111166596, 0.5171181560, -0.2677897513, -0.2565339804, 0.9891291261, 0.5684274435, 0.5100257993, 0.2804045081, -0.2806083560, 0.4029747248, -0.4662334323, 0.7361186743, 0.5683045983, -0.2650838494, -0.3312790394, -0.3327096701, 0.4892334938, -1.1914134026, 0.4972108006, 0.5020857453, 0.5045542121, -0.4391690791, 0.2724499106, -0.0290371478, 0.8371484280, 0.7193563581, -0.0035598278, -0.1858292520, -0.4296621680, -0.4735107720, -0.4746270776, -0.3093187511, -0.0152660916, -0.4306356609, 0.8273290396, 0.6139469743, 0.5572448373, 0.5385640264, 0.6760728359, 0.9478573799, 0.7028964758, -0.5073851347, 0.3470498919, 0.7512878180, -0.4131236970, -0.5409234166, -0.3190028369, 0.4847404957, 0.5018693805, 0.7866604924, -0.0838588402, -0.7089816332, -0.7621822357, -0.5894262195, -0.2864005566, -0.3681121171, 0.9372177720, -0.2356724888, 0.2747312188, -0.0684618950, -0.7982966304, 0.0358249843, 0.2219470441, 0.5538578033, 0.3927636147, 0.4229179323, -0.2917678952, 0.1517537832, 0.3290438652, 0.5069395900, 0.6231150627, 0.3331673741, -0.1427574456, 0.3980471492, -0.2404585183, 0.9851781130, 0.7117424607, -0.1345450282, 0.4209170938, 0.0822542980, 0.7023509145, -0.0952576399, 0.1652829945, 0.6247584224, 0.8747547865, 0.1127291098, 0.2777814865, -0.0192620419, 0.2370756269, 0.8668392301, 0.2585609853, 0.0920499712, -0.9618288279, -0.0084253466, -0.0029065988, 0.4126146138, 0.2280358672, -0.0475113913, 0.6450031400, 0.5186433196, 0.6343330741, 0.3237671256, 0.3331395984, 0.3224857450, 0.6426383257, 0.1805882901, 0.7307897210, 0.3280708492, -0.4242023230, 0.0709238052, -0.1288116276, 0.5196138620, -0.2729595900, 0.5235356092, -0.2968248129, -0.0400119275, -0.6975439191, -0.0861861259, 0.1754247844, -0.0189989265, 0.8872139454, 0.0627607405, 0.5007401705, -0.1554009169, -0.1380004734, 0.3565821648, 0.2669136524, 0.1518989652, -0.2346869707, 0.0604377612, -0.1320469379, 0.3561011851, -0.2349486649, -0.3523127735, -0.0246152561, -0.1970255822, 0.1866513789, 0.2566739619, 0.6345871687, 0.2931906581, -0.0235163644, 0.3481713235, 0.3370184004, 0.3694624901, 0.0712217540, 1.0295137167, 0.2122441083, 0.1761236638, 0.0771612749, -0.0038583083, -0.2255720347, -0.0109417858, -0.0299720950, 0.7824862599, -0.5616459846, 0.0392645523, -0.0111500910, 0.4343897402, 0.3158034682, 0.1831755489, -0.1402904391, 0.5820623040, 0.4066734016, 0.1661193818, 0.2698286474, 0.2285488993, -0.0723300725, 0.1113567427, 0.1433157176, 0.4102208614, 0.2278833538, -0.1123377755, 0.7412012219, 0.1628038883, 0.1823239774, 0.2489540726, 0.6433379650, 0.7932032347, -0.5721117258, 0.5334316492, 0.5242133141, 0.4456720352, -0.4664565921, 0.5903468132, 0.1759767234, 0.2083601207, 0.1918585002, 0.6377924681, 0.8217453361, -0.5978031754, 0.4162619114, 0.1592945009, 0.1788320541, 0.4735357463, 0.1695341915, 0.0268034153, 0.2892014980, 0.2795809209, 0.3812069893, 0.4569723010, -0.2507007420, 0.2815001309, -0.3372918367, 2.0159347057, 0.4510799348, 0.3517309427, -0.0601989292, 0.2897405922, 0.6230556965, -0.8693100214, 0.2486118078, 0.4154706299, 0.4224646389, 0.0608029701, 0.1302618831, 0.1762062758, 0.4350464046, 1.4321522713, -0.1960041225, -0.1925173104, -0.2945723534, 0.2965124249, -0.7091083527, 0.1564581394, -0.3602161407, 0.0783021972, 0.6749168038, 0.6693375707, 0.2194995284, 0.3153496981, 0.3946695626, 0.1714506298, 0.2761936188, -0.1124507934, 0.3969512880, 0.5294117332, -0.3567522764, -0.1450631469, 0.0586064495, -0.8468212485, 1.1297949553, 0.9219275117, 0.6741476655, -0.7999911308, -0.8531198502, 0.1264451593, 0.6516582370, 0.2142881900, 0.7621002197, 0.1888432354, 0.2728193700, -0.3146693707, -0.0278973989, -1.0970591307, 0.3850324154, 0.0142890895, -0.2645808756, -0.2834413946, 0.1236545742, -0.0491937585, -0.3786669672, -0.1587608159, -0.2695967257, -0.0973975062, -0.1800919771, -0.4244342148, -0.2817298472, 0.1488044411, -0.1378822923, 0.1737609953, -0.1091928110, 0.2986813784, -0.1282953471, -0.8408479095, -0.1023030132, -0.1287026405, 0.0202913824, 0.1052963659, -0.2398894429, 0.0201956090, -0.3133201599, 0.1112017855, 0.2216562331, -0.2048556954, 0.1259289533, -0.9304770827, -0.2103089243, 0.0057830131, 0.1808481812, 0.0774707198, -0.0352429152, -0.0366221145, -0.0203574281, -0.3418417573, 0.7144096494, 0.0162066072, 0.0659460053, -0.3911229670, -0.1310817599, -0.3199564517, -0.1990040243, -0.4409929514, -0.0003413027, -0.2059156001, 0.2038602978, -0.1460350752, 0.1801791042, -0.8470370173, 0.2938964367, -0.4229300320, -0.1433571726, -1.0932106972, 0.0822705477, 0.1344946176, -0.0947400033, -0.1701019406, -0.3211913109, 0.2923621833, -0.3517531157, 0.0232571717, 0.0874561891, -0.0131482491, 0.0654573292, 0.6300048232, 0.3001135588, 0.1292741895, -0.0042487583, -0.2155880481, 0.7727822661, 0.0047643282, 0.2449850291, 0.1023720205, 0.0941653997, 0.1218971312, 0.4156796336, -0.2522653043, 0.0675097778, 0.3871458471, 0.0197090656, 0.2362233698, -0.0387171321, 0.5783612132, -0.0637044907, -0.2535566390, 0.1106557548, -0.3902758956, 0.0353272893, -0.0163081270, 0.1619642377, 0.2685120702, 0.9055497646, 0.4384469986, 0.1710399985, 0.5841815472, -0.5631748438, 0.1874480695, -0.0363177881, -0.0514401644, -0.6257472038, 0.1734166443, 0.0967141986, 0.2759133577, 0.1596817821, 0.2439002842, 0.3392620087, 0.4847563803, 0.4497326016, 0.1981143951, -0.5283904672, -0.8267150521, -0.9127182961, 0.3309269845, -0.0603095330, 0.2966084182, -0.8475757241, 0.2339302152, -0.5802971125, -0.0560328886, -0.0472788028, 0.1265461445, 0.4948820770, -0.4698968530, -0.2657306790, 0.2823300064, 0.2157225162, -0.1973986179, -0.5611183643, 0.1808278561, 0.6254703999, 0.6200655699, 0.2034255862, -0.0470000878, 0.2337892056, -0.1874158531, 0.1197452769, 0.4027338028, 0.0138618322, -0.2874125242, -0.5191604495, -0.2544490397, 0.5080313087, 0.1374057829, 0.1940711886, 0.1110456586, 0.4738852978, 0.1153778806, -0.2540669739, 0.0535130687, 0.5337329507, 0.7820649147, -0.6711119413, -0.1024316028, 0.1838262230, 0.7065206170, 0.1754146367, -0.8926359415, 0.2179736048, -0.3494919837, -0.1282443702, 0.1519970894, 0.4083205760, 0.3580452502, 0.1938972324, 0.2198881060, 0.1451430917, -0.2585857213, 0.1045899093, 0.5572502017, 0.0777596235, -0.0801746249, -0.2685864568, 0.9183288813, 0.2556127310, 0.3738410175, -0.2486442924, 0.8419290185, -0.2259161919, -0.2635765374, -0.2931677103, 0.1554484814, -0.1633507907, -0.3524302542, 0.1465605199, 0.4301897287, -0.2916494310, 0.0959202200, 0.3042232394, 0.0117184501, -0.1511751711, 0.3643461764, 0.3703189194, 0.0649973899, 0.1175915301, -0.4055912197, 0.0002122190, -0.1584421694, -0.1209061071, 0.3434034884, -0.2320610881, 0.3105266392, 0.0125969555, 0.2463360131, 0.0747978091, 0.7495024204, 0.0262629762, 0.2261808217, 0.3067182302, -0.0913377926, 0.1018636301, -0.0775852278, -0.1585040390, -0.2349731624, 0.0694328845, 0.5686621666, -0.0321309976, -0.1350296140, 0.0766080394, -0.0420895852, 0.0961244330, -0.1903578788, -0.1618583947, -0.0797709823, -0.0597157888, -0.1938714385, 0.1375437528, -0.3370585144, -0.9120323658, 0.0503466316, -0.0953114033, -0.0111850463, -0.0948725715, 0.2094585001, -0.2558856308, -0.0085656689, -0.0601999275, -0.0334777236, -0.7347141504, -0.7260414362, -0.2641485929, -0.4857733548, 0.0100054769, -0.0257643405, -0.8005584478, -0.0300100278, 0.2221260518, 0.5348262787, 0.1839553863, 0.1391856372, -0.1135474443, -0.5746341348, 0.2736172080, -0.0996212214, -0.4000696242, -0.0803861618, 0.3983439207, -1.4465097189, -0.1184407249, -0.0521991886, -0.3434001505, -0.0830181539, -1.0775002241, -0.1656044126, -1.3944736719, 0.1760950238, -0.3381393552, 0.1968646049, -1.7070311308, 0.2484614253, -0.1425024569, -0.9103156924, 0.0266140103, -0.1693749279, -0.3077823520, -1.1534943581, 0.2536511123, -0.2212490439, -0.0284807812, 0.4824456275, 0.3653086126, 0.0633442998, 0.1623071134, -0.9548901916, -1.3218373060, -1.3815830946, -0.0707435384, -1.5081093311, -0.0326411799, -0.2401698828, -0.2957770228, -0.2540541291, -0.0052045747, -0.3353796601, 0.0488583781, -1.4001424313, -0.4119593799, -0.0730821192, -1.3241308928, -1.5395077467, -1.4010378122, 0.5036540627, 1.2853637934, 1.4588379860, 0.4081142247, -0.6802828908, -0.3300558329, -1.3831233978, 1.0352320671, -1.6409821510, -0.0619751364, 0.2896878421, -0.0450433828, -1.2443114519, -2.4204401970, -0.4867717922, 0.9394467473, -0.0313291214, -0.3866367340, 0.0002251015, 0.4308488965, -0.0841692165, -0.1691278964, -0.3791911900, -0.0595063791, -0.1971663237, 0.0339567997, 0.0981774181, -0.5439274311, 0.3800522089, -0.0524419621, 0.6698510647, 0.0746516958, 0.8608456850, -0.0962271839, -0.5856404901, -0.2236439884, -0.0060870266, -0.0574884117, 0.0899367034, 0.0083947526, 0.1288461387, -0.3838408589, 0.1430053413, 0.2135118544, -0.1344460398, 0.0392565057, -1.1083316803, -0.6415839791, -0.1051139161, 0.1415682286, -0.0975063965, 0.1946453750, 0.1382225305, -0.1856342405, 0.0574751794, 0.6327180266, -0.0209685937, -0.0777063370, -0.1780606508, -0.2098308355, -0.2698198557, -0.1035675779, -0.1987306774, -0.1827828139, 0.1344813257, 0.1081693545, -0.6063430309, 0.6112145782, -0.8030051589, 0.1718520224, -0.1629126072, 0.6904905438, -1.4081052542, 0.2300039381, 0.6450476050, -0.3089025915, -0.3648688197, -0.9852175713, -0.1931280196, 0.3033155799, 0.0025524935, 0.0641566217, -0.2010773867, 0.2710610628, -0.7378861904, 0.2894406617, 0.1317052096, -0.2773657739, -0.0499986485, -1.1524020433, -0.0644569248, -0.5267246366, 0.0101050036, -0.3443070948, 0.8164914846, -0.8677006364, 0.6045677662, 0.1040387154, -0.7116179466, -0.1964857727, -0.1472341120, -0.0890508667, -0.8957666755, 0.1106028557, -0.1254193783, 0.1035789177, 0.2310916930, 0.3447115719, 0.0123356283, 0.8166647553, -1.5020643473, -0.1814243942, -0.5964230299, 0.0008030313, -0.6273298264, 0.0026572593, -0.2248733938, 0.1094110906, 0.1969908029, 0.1084824279, 0.1357758641, -0.1840027869, -0.7829489708, 0.0649726242, -0.1457964778, -0.8988918662, -0.9700790644, -0.9643580317, 0.3736966848, 0.6453050971, 0.6279612184, 0.8545672894, -0.7944976091, 0.0036336312, -1.0845454931, 1.4352132082, -0.9025476575, -0.3686512113, 0.7017071843, -0.1636492014, -0.9358601570, -0.3615253568, 0.6972089410, -0.0351192020, -0.5312801003, 0.0634298101, 0.4007717967, -0.2204723507, 0.5221254230, -0.5978999734, -0.4438067675, 0.1448877752, -0.3059117794, 0.3392186463, 0.3628638089, 0.7403443456, -3.2447748184, -0.7093116641, -0.0350336991, 0.4416863918, 0.0436210334, -0.4700720906, 0.6170810461, 0.3572099507, -0.8632181883, -0.7116875648, 0.5818803906, -0.0660552233, -0.0711867362, -0.6571391821, -0.4688298702, 0.0212897900, -0.1363090128, 0.2539624870, -0.4650638700, 0.3913379908, 0.6147019267, -0.3508943319, 0.1552476734, 0.0404373147, -0.6503407955, -0.6804542542, -0.7933354974, -1.6886601448, -0.5762700438, -0.3119805157, 0.5883210897, -0.4092546403, -0.6954524517, 0.5785294771, 0.0814590156, 0.2969917357, -1.8827886581, -1.0323265791, -0.8083289862, -0.3901418746, 0.1512120515, 0.2976227105, 0.2782253325, 0.5438052416, 0.4798696935, 0.0880823433, -0.3400446475, -0.0335641690, 0.5251015425, 0.8432067633, -0.2191688716, 0.3239229620, -0.3845668137, -0.5903294086, -0.3935581446, 0.2265356928, 0.0649295151, 0.0118613010, -0.8134940267, -0.1327700764, -0.3469707370, 0.3836440146, -0.0222967137, 0.4242015183, -0.7177622914, 0.0209717844, 0.1496144384, -0.1776814312, 0.2556413114, 0.0625375658, -0.3273646832, -0.2859259248, 0.0784106255, 0.2086475492, 0.3298838139, 0.0317410678, -0.1795489341, -0.1588241458, -0.0149408905, 0.1793138087, -0.0043411730, 0.4351217151, 0.2339736074, 0.2862316370, -0.5023222566, -0.3609624207, 0.3058562577, 0.3742150068, 0.1870875955, -0.0606568940, 0.1413726211, 0.5639147162, 0.1356262714, 0.0432383157, -0.1075487658, 0.1574394852, -0.3388318717, -0.0493224710, 0.1324595362, 0.5018268824, -1.4370328188, 0.6540849805, 0.8305799365, -0.0901677758, 0.3149195313, 0.1451666355, -0.0207585916, 0.4843019545, 0.1908706725, 0.1711728573, 0.1281460077, -0.1886776537, -0.0171563774, -0.5933043957, 0.2454834878, -0.1326674819, 0.0657271966, -0.1066644788, 0.1012344882, -0.1554404348, 0.3373470604, -0.5512008667, 0.0838362873, 0.2622868717, 0.0365948267, -0.0542799868, 0.2891598046, 1.0411016941, -2.8206801414, -0.1718469262, -0.0625962913, 0.4439656138, -0.1882470995, -0.0567052364, 0.0719103366, 0.3269032836, -0.0613583140, -0.0355414264, 0.5686351061, 0.0048618824, 0.0925529152, -0.3530621827, -1.2614463568, 0.8321077228, -0.3012281358, 0.3164981902, -0.4289439619, 0.0735547468, 0.5032249093, -0.4671202898, 0.2772725821, 0.2686145902, -0.4436343014, -0.1645990461, -0.0936008468, -0.8790777922, -0.1866791844, -0.1588947773, 0.1602058560, 0.1500111371, -0.5291566253, 0.9861572385, 0.1401416063, 0.0677788034, -2.3298788071, -0.2693910897, -0.5506360531, -0.2206847817, -0.0289338250, 0.8761588931, 0.4564597011, 1.4110732079, 0.0881999582, 0.1906701326, -0.2054557055, 0.0965526253, 0.6095042229, 0.7223542929, -0.9661741257, 0.0797370225, -0.3746049702, 0.0446325503, -1.6109812260, 0.0742024332, -0.0444099084, -1.1880711317, 0.2392639816, -1.2383239269, 0.2720685899, 0.2117262036, -1.3856520653, 0.0626324117, -1.1950581074, -1.5186939240, 0.1453872770, 0.1943076253, -0.0080955541, -1.0562924147, 0.1638579071, -0.7055138350, -1.5865412951, -1.1327160597, 0.0680054724, -0.4125436246, 0.1954160184, -1.4144870043, -0.8353303671, -0.1807377785, -0.2558929026, -0.2370090336, 0.2711590230, -0.1233913153, -0.0011220369, -0.3218389452, 0.0547042228, -1.3563369513, -1.2347619534, -1.0431313515, -0.9770082235, -1.2111835480, -0.8483010530, -1.1219024658, 0.1404854506, -1.1257419586, -1.2108197212, 0.2575003207, 0.0025868418, 0.0259612408, 0.3817771375, -0.4296340644, 0.1375153214, 0.0837586075, -0.2331923544, 0.0043208138, -0.0701685846, -0.1799412668, -0.1477547288, -1.5504221916, 0.0743426606, -0.4532330334, 0.0751805007, 0.1016048416, -0.5011240840, 0.6160951257, -0.2592194974, 0.1713075638, 0.0387111120, 0.2635735273, 0.2744137049, 0.0011771847, 0.3603188992, 0.1968632340, 0.5811210275, 0.0128462659, -0.0331061855, 0.4506332874, 0.2388477623, -0.0099135255, 0.4929181337, 0.5617449880, 0.4827170372, 0.1016993821, -0.2335579842, 0.1028547063, 0.1333774179, -0.0948930234, 0.5012887716, 0.0354521535, -0.2081229836, -0.1340672076, 0.0036833198, -0.6134134531, -0.1943726540, -0.0559173785, 0.4074904621, 0.0979408398, 0.4083699286, -0.2461913377, 0.3451458514, -0.0783775598, 0.1247864217, -0.1493137926, 0.0640689954, -0.7717254162, -0.0637345165, 0.1801996082, 0.3566751778, 0.0834390894, -0.2667417526, -0.1030766815, 0.1412477493, 0.2009905130, 0.2208068669, -0.9593597054, -0.0296361689, 0.4518236518, 0.4789249301, -0.1335830986, 0.1803223342, 1.1744154692, -0.0279034805, 0.2226737589, 0.3371240795, 0.5444409251, 0.4960737824, 0.5233428478, -1.5572980642, 0.1295736581, 0.2660733461, -0.3479838371, 0.3738923669, -0.2134035528, 0.4174433351, 0.0639758408, -0.3510842323, -0.2042919248, -1.4666349888, 0.3482187390, 0.2315917611, 0.1912449151, -1.0268783569, 0.5443798304, -0.5467802882, 0.4712820053, 0.1921897829, 0.0118222982, 0.6122605205, -0.2502386868, 0.2250211537, 0.0617134236, 0.6427972317, 0.3510976732, -0.1618270576, -0.0417550020, 0.0948186815, -0.1396184564, -0.1925029308, -0.3045043647, 0.0906077176, -0.2728484273, 0.3043678403, 0.0147369625, 0.5742604136, -0.4025653601, 0.5646750331, 0.0554445572, 0.0583582334, -0.4135654271, 0.2276904732, 0.1451666355, 0.4092760980, 0.2526282668, 0.2146148682, 0.3076256216, 0.2030129135, 0.5611388087, -0.5186060071, -0.3574727476, -0.6942805052, -0.2925813496, 0.3173572421, 0.2588841021, 0.4131937027, 0.3664211929, 0.2117155790, -0.0764657259, -0.1457318217, -0.0133546358, 0.3668974042, 0.3773154616, -0.7147415280, -0.0052258172, 0.0232126750, -0.4267023206, 0.0880434588, -0.0412543975, -0.4183898866, -0.6908742189, -0.6831943393, -0.1433628350, -0.3371170461, -0.4982721508, -0.1415077150, 0.1275270432, 0.3001751900, -0.3767755926, 0.1858343780, -0.3742358983, 0.1635979116, -0.0975428745, -0.8443247676, 0.1978554875, -0.4229167700, -0.4724942446, -0.4299635589, -0.0163995605, -0.2209862769, -0.3885034621, 0.4939998686, 0.1436418295, 0.1089500487, -0.0812970400, -0.7798305750, -0.8171980977, -0.0600855984, -0.1377061009, -0.1929960996, 0.4402981699, -0.1427498162, -0.3487127125, -0.2673350275, 0.7415845990, -0.8015703559, -0.0018404237, -0.0059796101, -0.3334174752, -0.6522073150, -0.1277667582, -0.5846100450, -0.3277316689, 0.0338292792, 1.4998956919, 1.8648993969, 0.2654686570, -0.5763290524, 0.1634929627, -0.0747881830, 0.0189208835, -0.4598318338, 0.3868384957, -0.0481869057, 0.0561449975, -0.1542330682, -0.0306994785, -0.0556090400, 0.1681842059, -0.0801823214, -0.0579964668, 0.0205421560, 0.1551202834, -0.5285871625, 0.3494440019, 0.1342133284, -0.2801277041, 0.0153642418, -0.4847133458, -0.1278945953, -0.0228870437, -1.8614023924, 0.1089861318, 0.0705210716, -0.2204685509, 0.1255083978, -0.0968248844, -0.2097389847, -0.0892564282, 0.1292005777, -0.1430069357, -0.4095117450, -0.1164593324, 0.0097453259, 0.2794715762, -0.7382811904, 0.1297931522, -0.1497720480, 0.3837637603, -0.1482682973, -0.2752629220, -0.0783209056, -0.0304727387, -0.2305871397, -0.1733345538, -0.1606447697, -0.2091855258, -0.0112976423, 0.1933689266, 0.0238215588, -0.1468977034, 0.0053535709, -0.3180644214, 0.1360262334, -0.0717483759, -0.4164001644, -0.4301929474, -1.5034116507, 0.2003032118, -0.0706413016, 0.3065457344, -0.3221493363, 0.3246501982, -0.0048851534, 0.3730968833, -0.5096956491, 0.1857837737, 0.3871321082, -0.0978254825, -0.3938548267, -0.0159603320, -0.4871467948, -0.0720660165, -0.1809011102, -0.5675257444, -0.2719984949, 0.4034748971, 0.0325091965, -0.2268762589, -0.4799394310, -0.2766578197, -0.2714594007, 0.1907201558, -0.1555534750, -0.1802696586, -1.3865220547, -0.1585665047, 0.0404891074, -0.1324651092, 0.2976855040, -0.1000663862, 0.0747024342, -0.0706858560, -0.2087987363, -0.2091779113, 0.2704493105, -0.0086816512, -0.1339764893, -0.2603052855, -0.5639109015, 0.0370159410, -0.2680189312, 0.0818266720, 0.0693606734, -0.0809501708, -0.0302000232, 0.1124473438, 0.2081419826, -0.0301651433, -0.2912232578, 0.1957186460, 0.1016840935, 0.0016271346, 0.0791367441, -0.0621115454, 0.1466039419, -0.1535908133, -0.4472228885, 0.0852477401, 0.1475572288, 0.3228603601, -0.5246071815, 0.3452041447, 0.4600803256, 0.2302148640, 0.0436685048, -0.0940534472, -0.1443945915, -0.3079227507, 0.0688383877, 0.2921496928, -0.1280332059, -0.4513030648, -0.0909026116, 0.0769657716, -0.8145228624, -0.1166195944, -0.1825943291, 0.1031879708, 0.1073792875, -0.3754414618, 0.1653411984, -0.0442454554, 0.1302407682, -0.1613993645, -0.0964945257, 0.1300881654, -0.0502401032, -0.0818101168, 0.2516762316, 0.0889923647, -0.3245391250, 0.3999885619, -0.0483683534, 0.1779168844, -0.6043167114, 0.1167974547, -0.0618943758, -0.0019027205, 0.1987507939, -0.2730440199, -0.1193978637, 0.0440193675, 0.2552044690, 0.2271143049, -0.2176777124, -0.3056670427, -0.3641522825, -0.1741926670, 0.4288755953, -0.0066516269, -0.0064476961, -0.0367152058, 0.0596668385, -0.0686397776, -0.1358747780, -0.1361298710, -0.2234531492, -0.1092748493, -0.0689528212, -0.0371105596, 0.0758094415, -0.0391853042, 0.1225380376, 0.2885798216, 0.3616848290, -0.1513699293, -0.3264946640, -0.9252058864, -0.2586072385, -0.3304167986, 0.1893933713, -0.1442063898, -0.1655365676, 0.1512067020, -0.0088524651, -0.1421781927, -0.0944164544, 0.0952146128, -0.2130260020, 0.2363613993, 0.0469596311, 0.0499353446, 0.2341033518, -0.1310740113, 0.7706817389, 0.4027034938, 0.2929253578, 0.0424557775, 0.0914709494, 0.2783110142, 0.0742061064, 0.5589467883, -0.2366154194, -0.0209608730, 0.4195291996, 0.7709008455, 0.0489726402, 0.0638797730, 0.0635997877, 0.1551389098, 0.1899100244, 0.0047027660, 0.7032355666, -0.0214974005, -0.0184305198, 0.4229435921, 0.4250644147, -0.3950074017, 0.0909316689, 0.3105958402, 0.5216058493, 0.0203272346, 0.4521341622, -0.2467851937, 0.7172362804, -0.1552309245, 0.0337039344, -0.2125254720, -0.1602593511, -0.3422117829, 0.2048672885, 0.2718097270, 0.5543335080, -0.0741055608, 0.3330653608, 0.6088389754, 0.6427569389, 0.7020143270, -1.1156046391, -1.4078645706, -1.3150908947, -0.0061155981, 0.8423100114, 0.0836239606, 0.5350522995, 0.2991344631, 0.6552097201, 0.0599305555, -0.0740676895, 0.0844432935, 0.6597476006, 0.7332822084, 0.0210455172, 0.5934650302, 0.1957532614, 0.0200987514, 0.0448585711, 0.8189458251, 0.1495991200, 0.0769098550, 0.0141938087, 0.1635179073, 0.0097173741, 0.4028453231, 0.1777545214, 0.3730752766, -0.2921960056, 0.2623138130, 0.9056400657, 0.5920336246, 0.6161502600, 0.0560961924, -0.4481233358, 0.0780151039, 0.1692228019, 0.1011452824, 0.0790378451, 0.2905289233, -0.1944155991, 0.1385459155, 0.3237169385, 0.2782764733, 0.0358564965, 0.3972357512, 0.4000846744, -0.3574847877, 0.5875791311, -0.0735364556, 0.4080651700, 0.0923779085, 0.2125024199, 0.0930913836, 0.0898097008, -0.0772624314, 0.2134876102, 0.2803480625, 0.1663742661, -0.0952554941, 0.0368811637, 0.0680842623, 0.2388348877, 0.2286549956, -0.7562618256, -2.6091566086, -3.0069169998, 0.8385586143, -0.2150273323, 0.2537043393, 0.0796969086, 1.5145868063, 0.6604117751, 0.2141757309, 0.7012717724, -0.0545690618, 0.1460070014, 0.1553717852};
#endif

#endif
