//Numpy array shape [64, 1]
//Min -1.908801078796
//Max 0.942576169968
//Number of zeros 0

#ifndef W6_H_
#define W6_H_

#ifndef __SYNTHESIS__
model_default_t w6[64];
#else
model_default_t w6[64] = {0.2290461361, 0.0491210446, -0.3249199092, 0.0193923730, -0.4598028064, 0.3282876313, 0.0850442052, -0.3794355989, -0.1745245010, -0.7347725630, -0.6405428052, 0.2362199277, -0.4944265783, 0.0081244977, -1.9088010788, -0.5776287317, 0.1162455827, 0.2487693131, 0.2084661275, -0.4489787221, 0.9425761700, -0.3757941425, -0.6340245008, -0.4037635028, 0.0624233037, -0.1132996902, -0.1352202743, -0.2598765194, -0.7678436041, 0.0023841902, -0.0098053142, 0.1024045944, 0.3306111395, 0.4152856469, 0.0670467466, -0.1519299597, 0.1736165732, -0.2808120847, -0.5271164179, -0.4706471562, -0.2280919999, -0.6032308340, -0.0898867548, -0.5886886120, 0.0752639994, -0.4182592630, -0.3518288434, 0.0492745116, 0.0085273040, 0.1119618341, -0.9146536589, -0.5752230287, -0.4938442111, 0.1632512063, 0.0557509921, -0.0081213769, 0.0049480614, 0.8329078555, 0.2693530917, -0.1785807759, 0.1520107388, -0.3691368103, 0.0361462981, 0.2505208850};
#endif

#endif
